<?xml version="1.0"?>
<opencv_storage>
<opencv_ml_svm>
  <format>3</format>
  <svmType>C_SVC</svmType>
  <kernel>
    <type>LINEAR</type></kernel>
  <C>1.</C>
  <term_criteria><iterations>100</iterations></term_criteria>
  <var_count>16</var_count>
  <class_count>10</class_count>
  <class_labels type_id="opencv-matrix">
    <rows>10</rows>
    <cols>1</cols>
    <dt>i</dt>
    <data>
      48 49 50 51 52 53 54 55 56 57</data></class_labels>
  <sv_total>45</sv_total>
  <support_vectors>
    <_>
      0. 1.26254141e-001 1.68338850e-001 0. -8.57425109e-002
      1.98849216e-002 1.62033692e-001 -9.16599929e-002 9.23119560e-002
      1.43571422e-001 1.29422336e-003 -7.37113506e-002 0.
      7.22547919e-002 1.42955869e-001 6.69934507e-003</_>
    <_>
      0. 1.12428322e-001 1.63778082e-001 0. -8.31454247e-002
      1.65984765e-001 6.77147433e-002 -1.52309775e-001 -4.98034917e-002
      1.32884560e-002 4.11539488e-002 -7.03240782e-002 0.
      -1.32884560e-002 1.40744805e-001 -2.82198284e-002</_>
    <_>
      0. 4.37516063e-001 3.21035147e-001 -5.08388914e-002
      1.92536786e-001 9.92953703e-002 2.95654267e-001 -5.05498648e-001
      1.29403517e-001 -9.92953703e-002 -4.52162802e-001 3.36402535e-001
      1.39708638e-001 1.69229321e-002 1.67362615e-002 5.66746831e-001</_>
    <_>
      0. 8.52460712e-002 5.41993976e-002 0. 1.09786138e-001
      -1.15353957e-001 1.54856533e-001 1.17917098e-001 -4.27222531e-003
      -1.03482179e-001 -2.58990288e-001 1.47118270e-002 9.88434069e-003
      -9.06043872e-002 -7.49007100e-003 5.12613393e-002</_>
    <_>
      0. 7.14315623e-002 5.74775971e-002 0. -1.11734383e-001
      -9.11571458e-002 1.79790661e-001 -7.38547519e-002 -8.56177211e-002
      1.42821297e-001 -1.07404180e-001 -6.98096380e-002 -7.04689100e-002
      7.04957619e-002 1.75720006e-002 -1.67936701e-002</_>
    <_>
      0. 1.00503102e-001 5.81416152e-002 0. 8.56270269e-002
      -1.22298330e-001 -1.01229988e-001 -1.37885660e-002
      -1.14151709e-001 6.79142252e-002 -1.00665830e-001 -9.31052119e-002
      -6.89428300e-003 4.09205765e-001 1.57084778e-001 1.28426915e-002</_>
    <_>
      0. 1.04185358e-001 7.81390145e-002 0. 6.16854243e-003
      5.31937741e-002 1.20075822e-001 5.05757220e-002 -3.18240486e-002
      3.59815080e-003 7.70605505e-002 1.72435731e-001 -2.42847838e-002
      4.05387022e-002 5.28772324e-002 0.</_>
    <_>
      0. 3.94862324e-001 1.21842939e-002 0. -4.53617245e-001
      -5.09067416e-001 1.86873555e-001 -5.31127334e-001 -2.39447489e-001
      -8.44163541e-003 -3.06695193e-001 -1.84139222e-001 8.48238468e-002
      1.37926623e-001 2.87902653e-001 3.24777007e-001</_>
    <_>
      0. 6.32661432e-002 1.89109400e-001 0. 6.40284643e-002
      -1.25549898e-001 1.55272588e-001 -3.18733081e-002 3.37817855e-002
      -1.16783373e-001 -3.38865370e-001 6.50106594e-002 2.80513763e-002
      -1.77805468e-001 -3.19451392e-002 7.21919090e-002</_>
    <_>
      0. -4.60381918e-002 0. 0. 8.48535374e-002 1.55801401e-001
      -4.77879286e-001 -9.17771235e-002 -3.43137324e-001
      -1.17343292e-001 1.04988687e-001 6.75188331e-003 0.
      -2.93234557e-001 0. 2.25397609e-002</_>
    <_>
      0. 0. 0. 0. 8.14296603e-001 6.42520636e-002 -9.24743474e-001
      4.47997659e-001 -7.48816609e-001 -6.46738350e-001 -3.95941645e-001
      -1.73828602e-001 0. 0. 0. 2.10070699e-001</_>
    <_>
      0. 0. 0. 0. 9.04182717e-002 -9.96932685e-002 -7.47424513e-002
      9.04202387e-002 -4.37249839e-002 -1.26359388e-001 -4.44695652e-002
      -1.25975152e-002 0. -1.24143720e-001 -1.24143720e-001
      6.92123221e-003</_>
    <_>
      0. 0. 0. 0. -7.52156913e-001 -4.24520135e-001 -4.14548963e-001
      -3.62583250e-001 -1.23457707e-001 3.26360375e-001 -2.13111550e-001
      -5.93009710e-001 -1.78460762e-001 0. -2.67691165e-001
      -8.92303810e-002</_>
    <_>
      0. -5.72793484e-002 -1.14558697e-001 0. 5.93999401e-002
      -1.98776573e-002 -2.03180894e-001 2.57966798e-002 -1.18007571e-001
      -2.65889894e-002 -1.45412181e-002 -2.65889894e-002
      -2.86396742e-002 0. -3.39761153e-002 -1.13253715e-002</_>
    <_>
      0. 0. 0. 0. -5.90886595e-003 5.41691296e-003 1.82943363e-002
      1.02356240e-001 -6.17331266e-002 -6.11509643e-002 1.12847693e-001
      1.78060204e-001 -6.92365691e-002 -3.46182846e-002 0.
      2.73969825e-002</_>
    <_>
      0. -4.71103340e-002 -1.11033276e-001 -8.40630475e-003
      9.60595459e-002 -6.92644492e-002 -2.69439578e-001 4.40455340e-002
      -1.57355517e-001 -1.83625221e-001 -1.52364271e-002 8.46760049e-002
      0. 0. -1.21541157e-001 -4.03677747e-002</_>
    <_>
      0. -3.13439257e-002 0. 0. 7.75777474e-002 -9.77887511e-002
      -1.15316197e-001 1.01867758e-001 -4.28448766e-002 -1.77221984e-001
      -7.70410374e-002 4.82426547e-002 0. -1.59909219e-001
      -1.22278109e-001 3.31227388e-003</_>
    <_>
      0. 3.05998102e-002 -1.12482809e-001 -2.81207021e-002
      -1.92230549e-002 -2.03138128e-001 2.17251927e-001 4.06165421e-001
      -1.11502372e-001 -3.57902884e-001 -3.26040298e-001 8.20350572e-002
      -5.01137674e-002 1.20642424e-001 -1.50341302e-001 6.73352107e-002</_>
    <_>
      0. 0. 0. 0. 2.97754090e-002 -1.67382300e-001 -4.50231172e-002
      7.46710300e-002 2.06902847e-002 -1.88477598e-002 -5.75382896e-002
      2.25328095e-002 0. -5.27257239e-003 -7.25734979e-002
      4.48106155e-002</_>
    <_>
      0. 0. 0. 0. -4.89090793e-002 -1.85316175e-001 -2.24776492e-002
      6.12935983e-002 -4.11658809e-002 6.52459636e-002 -6.37546778e-002
      1.04497978e-002 -3.00470442e-002 6.94009587e-002 -4.50705662e-002
      3.12437862e-002</_>
    <_>
      0. -2.99407300e-002 -5.98814599e-002 0. 2.83245668e-002
      -1.32326648e-001 -1.07446514e-001 4.49710749e-002 -2.61932146e-002
      5.12540676e-002 -4.63157594e-002 9.35894065e-003 -1.49703650e-002
      5.24661057e-002 -2.43892837e-002 2.68476419e-002</_>
    <_>
      0. 0. 0. 0. -1.63838509e-002 2.92568747e-002 5.61732017e-002
      9.71328244e-002 -7.95786977e-002 8.19192547e-003 3.74488011e-002
      2.64482141e-001 0. 3.86190750e-002 0. 2.57460512e-002</_>
    <_>
      0. 6.38334313e-003 0. 0. 6.44448623e-002 -2.03260154e-001
      -1.24063492e-001 6.64299726e-002 -7.99752120e-003 -1.84122343e-002
      -9.25136358e-002 1.56118795e-002 0. 5.76335154e-002
      -8.56411457e-002 2.15957537e-002</_>
    <_>
      0. -4.89175804e-002 0. 0. -1.99821443e-005 -1.75038353e-001
      -5.96528612e-002 8.60326961e-002 2.54255589e-002 -4.45327088e-002
      -8.82597044e-002 8.51038098e-002 0. -4.54709865e-002
      -4.93634529e-002 4.79195453e-002</_>
    <_>
      0. 0. 0. 0. 2.00743511e-001 -1.78438663e-001 -2.52788097e-001
      2.00743467e-001 -7.43494406e-002 4.46096659e-002 -2.08178431e-001
      -1.93308547e-001 4.46096659e-002 -4.46096659e-002 -2.37918213e-001
      4.46096659e-002</_>
    <_>
      0. 1.49003826e-002 0. 0. -1.44648656e-001 -1.99942738e-001
      -8.61966535e-002 -9.81212966e-003 -1.99942738e-001 2.27748111e-001
      -2.47125123e-002 -1.17159948e-001 -3.30541246e-002 1.73299909e-001
      8.18544999e-003 2.81740855e-002</_>
    <_>
      0. -1.22280614e-002 -9.35760885e-002 0. 8.85730535e-002
      -5.74825443e-002 -1.92501843e-001 2.30026320e-002 -8.32699239e-002
      1.08198345e-001 6.86730491e-003 -5.55384457e-002 -2.07076147e-002
      6.40753731e-002 -1.09212929e-002 2.46449579e-002</_>
    <_>
      0. 4.35086852e-003 5.80115756e-003 1.45028939e-003 3.03337518e-002
      1.21603478e-002 5.40679395e-002 7.04242736e-002 -2.78728679e-002
      5.40632419e-002 1.63584396e-001 2.00692102e-001 -7.44060352e-002
      -1.45712318e-002 5.61020896e-003 0.</_>
    <_>
      0. 1.18479632e-001 -6.93899244e-002 -4.95981164e-002
      1.09069735e-001 -1.49342179e-001 -3.46916080e-001 -7.97745809e-002
      2.57315785e-002 7.00447038e-002 1.66325659e-001 -1.15958773e-001
      0. 2.30948567e-001 -9.39603597e-002 4.03634273e-002</_>
    <_>
      0. 1.26615927e-001 0. 0. 2.15966366e-002 -1.34262785e-001
      -4.70407337e-001 5.97023249e-001 -4.67190742e-002 -7.31940866e-001
      -6.97662354e-001 6.23721108e-002 6.67042211e-002 -1.15319407e+000
      -1.04949951e+000 6.67042211e-002</_>
    <_>
      0. -1.97908469e-002 -1.97908469e-002 0. -1.33363321e-001
      8.54604784e-003 3.95816937e-002 -1.24817275e-001 -1.22793205e-001
      1.41909361e-001 5.93725406e-002 -2.96862703e-002 -5.93725406e-002
      1.84189811e-001 9.51310024e-002 -2.96862703e-002</_>
    <_>
      0. -2.88682636e-002 -2.41740774e-002 0. -4.02951390e-002
      1.25491181e-002 -1.95799053e-001 -1.65752441e-001 -1.11007079e-001
      7.42128491e-002 1.54921442e-001 -7.98363239e-002 -1.44341318e-002
      1.31561026e-001 2.50057993e-003 -3.17951404e-002</_>
    <_>
      0. 0. 0. 0. -2.30101477e-002 2.67941505e-002 1.08995929e-001
      -1.06766354e-003 2.50613336e-002 -8.88724905e-003 1.02965534e-001
      1.13030456e-001 -2.14206018e-002 2.17193905e-002 5.16184457e-002
      0.</_>
    <_>
      0. -1.38141972e-003 -2.76283943e-003 0. -1.65684506e-001
      7.00669810e-002 -1.36857867e-001 -2.40302160e-001 -8.35529994e-003
      -2.01755967e-002 1.09397374e-001 -5.55964187e-002 0.
      2.37321794e-001 7.30530620e-002 -3.75501923e-002</_>
    <_>
      0. 0. 0. 0. -3.58743906e-001 1.10905632e-001 -1.47133380e-001
      -5.52162886e-001 -5.29446244e-001 -1.29295662e-002 1.72355995e-001
      5.00487685e-001 0. -1.21274248e-001 1.04440846e-001
      -2.61942834e-001</_>
    <_>
      0. -7.89743215e-002 -1.57948643e-001 0. 7.44738877e-002
      3.87694836e-002 -3.24165523e-001 2.77053043e-002 3.44484746e-002
      -1.01521323e-002 -1.24995327e-002 6.74316892e-003 4.28961255e-002
      0. 2.02295072e-002 6.74316892e-003</_>
    <_>
      0. 0. 0. 0. 6.68283645e-003 8.39255750e-002 4.26751710e-002
      3.42283361e-002 -6.20791409e-003 -7.40539730e-002 7.59536624e-002
      1.33147880e-001 -1.33656729e-002 -2.08626632e-002 4.25394773e-002
      1.41798258e-002</_>
    <_>
      0. -4.43328843e-002 -1.25786439e-001 -1.85603369e-002
      1.42661005e-001 7.75742084e-002 -2.53962398e-001 -1.84639525e-002
      1.55325279e-001 -2.26893514e-001 9.00733545e-002 -5.22382697e-003
      5.58422320e-002 0. -7.05270544e-002 -5.09809703e-002</_>
    <_>
      0. 2.36691069e-003 1.12363920e-002 0. 1.03487350e-001
      -9.83580295e-003 -5.09073325e-002 1.15794837e-001 1.03487700e-001
      -1.50627181e-001 -6.21437244e-002 1.27694428e-001 5.98833524e-002
      -2.67866015e-001 -1.59838676e-001 2.99416762e-002</_>
    <_>
      0. 1.66747514e-002 3.33495028e-002 0. -3.23212221e-002
      4.73627597e-002 8.78247544e-002 3.02798469e-002 -4.35959722e-004
      -3.83076482e-002 5.46860769e-002 8.48253146e-002 -1.29566910e-002
      -1.06470333e-002 1.31401252e-002 4.38004173e-003</_>
    <_>
      0. -5.00906669e-002 -1.00181334e-001 0. -4.26745147e-001
      1.13312475e-001 2.65253156e-001 -3.04520845e-001 5.91512024e-001
      -5.29481590e-001 4.49679047e-002 1.20103911e-001 2.43846163e-001
      0. 1.67855504e-003 2.08801981e-002</_>
    <_>
      0. 7.97091983e-004 7.10786134e-002 0. 1.13035887e-002
      -8.94392207e-002 2.74611920e-001 1.81681998e-002 4.24657622e-003
      -1.28029466e-001 -1.94655359e-001 7.51190484e-002 1.77696534e-002
      -2.24525690e-001 -1.13276392e-001 1.99891422e-002</_>
    <_>
      0. 0. 0. 0. 2.50445516e-003 -7.18746558e-002 -1.00352339e-001
      -6.39559776e-002 1.92692056e-002 1.11297267e-002 -6.59585744e-002
      -1.15457766e-001 2.55416222e-002 1.27708111e-002 -4.42794785e-002
      0.</_>
    <_>
      0. -7.87852518e-003 0. 0. -2.69621853e-002 -1.23192452e-001
      -8.02747831e-002 -5.60315400e-002 -2.94066896e-003
      -2.28170976e-002 -1.00754626e-001 -1.07856289e-001 5.21423258e-002
      -8.36630985e-002 -5.68767674e-002 0.</_>
    <_>
      0. -1.87653556e-001 3.32676582e-002 0. 1.70467481e-001
      -5.35474680e-002 1.30284578e-001 2.49812320e-001 1.46402968e-002
      -7.58610442e-002 -2.40359679e-001 2.47004688e-001 0.
      -3.53724182e-001 -1.17821857e-001 2.67217308e-002</_></support_vectors>
  <uncompressed_sv_total>108</uncompressed_sv_total>
  <uncompressed_support_vectors>
    <_>
      0. 4. 3. 0. 8. 5. 7. 6. 6. 8. 10. 8. 0. 0. 3. 2.</_>
    <_>
      0. 1. 0. 0. 7. 5. 5. 9. 7. 8. 10. 9. 0. 0. 0. 3.</_>
    <_>
      0. 1. 0. 0. 7. 2. 5. 10. 5. 8. 7. 8. 0. 0. 0. 1.</_>
    <_>
      0. 0. 0. 0. 0. 5. 12. 1. 6. 11. 12. 6. 0. 0. 2. 0.</_>
    <_>
      0. 0. 0. 0. 4. 7. 8. 6. 5. 5. 4. 8. 0. 2. 3. 0.</_>
    <_>
      0. 0. 0. 0. 7. 9. 9. 5. 9. 9. 7. 8. 0. 0. 3. 0.</_>
    <_>
      0. 0. 0. 0. 5. 9. 8. 8. 7. 8. 9. 9. 0. 0. 4. 1.</_>
    <_>
      0. 0. 0. 0. 7. 9. 2. 7. 8. 1. 10. 6. 0. 0. 0. 0.</_>
    <_>
      0. 3. 4. 0. 6. 5. 4. 8. 4. 8. 8. 6. 0. 0. 1. 0.</_>
    <_>
      0. 0. 0. 0. 4. 7. 7. 6. 7. 5. 4. 8. 0. 3. 4. 0.</_>
    <_>
      0. 0. 0. 0. 8. 10. 3. 8. 8. 8. 8. 5. 0. 4. 2. 0.</_>
    <_>
      0. 0. 0. 0. 4. 7. 7. 6. 5. 5. 3. 7. 0. 3. 4. 0.</_>
    <_>
      0. 0. 0. 0. 6. 10. 4. 7. 5. 6. 9. 6. 0. 3. 1. 0.</_>
    <_>
      0. 0. 0. 0. 7. 1. 8. 10. 5. 8. 4. 8. 0. 0. 0. 0.</_>
    <_>
      0. 0. 0. 0. 4. 9. 5. 5. 6. 6. 9. 7. 0. 3. 2. 0.</_>
    <_>
      0. 0. 0. 0. 4. 8. 7. 5. 4. 5. 4. 8. 0. 4. 3. 0.</_>
    <_>
      0. 0. 0. 0. 0. 5. 12. 0. 6. 11. 11. 6. 0. 0. 2. 0.</_>
    <_>
      0. 0. 0. 0. 4. 8. 6. 6. 6. 5. 4. 8. 0. 3. 4. 0.</_>
    <_>
      0. 0. 0. 0. 4. 9. 11. 6. 6. 5. 8. 8. 0. 0. 3. 1.</_>
    <_>
      0. 0. 0. 0. 8. 10. 5. 6. 6. 6. 10. 7. 0. 3. 3. 0.</_>
    <_>
      0. 4. 0. 0. 7. 6. 7. 8. 4. 9. 11. 5. 0. 1. 0. 0.</_>
    <_>
      0. 0. 0. 0. 4. 8. 7. 6. 6. 5. 4. 7. 0. 3. 3. 0.</_>
    <_>
      0. 0. 0. 0. 5. 3. 4. 7. 7. 7. 8. 9. 1. 2. 3. 1.</_>
    <_>
      0. 0. 0. 0. 5. 6. 2. 6. 7. 7. 8. 9. 1. 2. 3. 1.</_>
    <_>
      0. 0. 0. 0. 3. 9. 10. 6. 7. 4. 7. 9. 0. 0. 3. 1.</_>
    <_>
      0. 0. 0. 0. 6. 7. 4. 8. 2. 4. 4. 8. 0. 0. 0. 0.</_>
    <_>
      0. 2. 4. 0. 5. 8. 8. 8. 5. 3. 10. 8. 0. 0. 1. 0.</_>
    <_>
      0. 0. 0. 0. 7. 1. 5. 9. 4. 7. 3. 8. 0. 0. 0. 0.</_>
    <_>
      0. 0. 0. 0. 8. 1. 3. 8. 7. 5. 5. 8. 0. 3. 0. 2.</_>
    <_>
      0. 0. 0. 0. 5. 10. 5. 6. 6. 6. 13. 7. 0. 3. 3. 0.</_>
    <_>
      0. 4. 0. 0. 7. 6. 7. 8. 4. 10. 11. 5. 0. 2. 0. 0.</_>
    <_>
      0. 0. 0. 0. 7. 3. 0. 6. 4. 8. 8. 10. 0. 0. 0. 2.</_>
    <_>
      0. 0. 0. 0. 0. 5. 12. 0. 5. 11. 11. 6. 0. 0. 2. 0.</_>
    <_>
      0. 0. 0. 0. 0. 5. 9. 0. 5. 11. 11. 5. 0. 0. 2. 0.</_>
    <_>
      0. 0. 0. 0. 3. 9. 11. 6. 6. 4. 8. 8. 0. 0. 3. 1.</_>
    <_>
      0. 4. 0. 0. 7. 6. 7. 8. 4. 9. 12. 5. 0. 0. 2. 0.</_>
    <_>
      0. 0. 0. 0. 7. 4. 2. 5. 7. 8. 9. 7. 0. 0. 0. 0.</_>
    <_>
      0. 0. 0. 0. 7. 5. 3. 6. 6. 8. 8. 7. 0. 0. 0. 0.</_>
    <_>
      0. 0. 0. 0. 8. 10. 3. 6. 8. 8. 8. 5. 0. 4. 2. 0.</_>
    <_>
      0. 0. 0. 0. 5. 8. 7. 8. 5. 6. 8. 7. 0. 0. 2. 0.</_>
    <_>
      0. 0. 0. 0. 0. 4. 10. 0. 4. 7. 13. 5. 0. 0. 2. 0.</_>
    <_>
      0. 0. 0. 0. 7. 4. 3. 8. 9. 8. 10. 8. 0. 0. 0. 0.</_>
    <_>
      0. 0. 2. 1. 7. 10. 7. 9. 5. 7. 10. 8. 0. 0. 2. 0.</_>
    <_>
      0. 0. 0. 0. 7. 0. 1. 7. 6. 8. 8. 9. 0. 0. 0. 2.</_>
    <_>
      0. 0. 0. 0. 10. 4. 4. 9. 3. 4. 4. 8. 0. 0. 0. 0.</_>
    <_>
      0. 0. 0. 0. 7. 4. 5. 9. 6. 8. 10. 8. 0. 0. 0. 0.</_>
    <_>
      0. 2. 4. 0. 5. 8. 8. 8. 8. 3. 10. 8. 1. 0. 0. 0.</_>
    <_>
      0. 0. 0. 0. 7. 7. 3. 8. 6. 8. 10. 8. 0. 0. 0. 0.</_>
    <_>
      0. 0. 0. 0. 6. 7. 5. 9. 2. 4. 4. 9. 0. 0. 0. 0.</_>
    <_>
      0. 0. 0. 0. 5. 9. 7. 8. 7. 7. 8. 9. 0. 0. 2. 1.</_>
    <_>
      0. 0. 0. 0. 5. 10. 5. 6. 6. 5. 9. 7. 0. 3. 3. 0.</_>
    <_>
      0. 0. 0. 0. 8. 0. 7. 9. 7. 8. 1. 8. 0. 0. 0. 0.</_>
    <_>
      0. 0. 0. 0. 2. 10. 8. 6. 8. 8. 10. 9. 0. 2. 4. 1.</_>
    <_>
      0. 0. 0. 0. 6. 8. 4. 9. 2. 5. 4. 9. 0. 0. 0. 0.</_>
    <_>
      0. 0. 0. 0. 5. 9. 11. 8. 7. 8. 8. 9. 0. 0. 3. 1.</_>
    <_>
      0. 0. 0. 0. 4. 9. 5. 6. 5. 6. 9. 6. 0. 3. 2. 0.</_>
    <_>
      0. 0. 2. 0. 1. 8. 12. 0. 4. 8. 12. 7. 0. 0. 1. 1.</_>
    <_>
      0. 0. 0. 0. 8. 9. 3. 8. 7. 1. 10. 7. 0. 0. 0. 0.</_>
    <_>
      0. 0. 0. 0. 4. 10. 5. 6. 6. 6. 10. 8. 0. 3. 3. 0.</_>
    <_>
      0. 0. 0. 0. 5. 9. 5. 6. 6. 6. 9. 7. 0. 3. 3. 0.</_>
    <_>
      0. 0. 0. 0. 5. 10. 5. 5. 6. 6. 10. 8. 0. 3. 3. 0.</_>
    <_>
      0. 0. 0. 0. 6. 3. 3. 9. 6. 9. 8. 7. 0. 0. 0. 0.</_>
    <_>
      0. 0. 0. 0. 3. 9. 11. 6. 7. 4. 8. 9. 0. 0. 3. 1.</_>
    <_>
      0. 0. 0. 0. 4. 11. 8. 6. 6. 5. 4. 8. 0. 3. 4. 0.</_>
    <_>
      0. 1. 1. 0. 6. 10. 4. 6. 8. 2. 8. 9. 2. 0. 3. 1.</_>
    <_>
      0. 0. 0. 0. 7. 0. 0. 9. 6. 8. 8. 8. 0. 0. 0. 2.</_>
    <_>
      0. 0. 0. 0. 7. 5. 1. 5. 8. 6. 5. 2. 2. 1. 0. 0.</_>
    <_>
      0. 4. 0. 0. 7. 6. 7. 8. 4. 9. 11. 5. 0. 0. 1. 0.</_>
    <_>
      0. 0. 0. 0. 5. 9. 8. 8. 7. 8. 11. 10. 0. 0. 2. 1.</_>
    <_>
      0. 0. 0. 0. 5. 10. 5. 6. 9. 6. 10. 7. 0. 3. 3. 0.</_>
    <_>
      0. 0. 2. 1. 7. 10. 7. 9. 5. 7. 9. 9. 0. 0. 0. 2.</_>
    <_>
      0. 4. 3. 0. 8. 5. 5. 6. 7. 8. 8. 5. 1. 1. 0. 0.</_>
    <_>
      0. 0. 0. 0. 8. 10. 5. 8. 8. 5. 10. 8. 0. 0. 0. 0.</_>
    <_>
      0. 0. 0. 0. 7. 9. 3. 6. 8. 3. 8. 9. 2. 0. 3. 1.</_>
    <_>
      0. 3. 4. 0. 6. 5. 4. 8. 4. 8. 8. 6. 0. 1. 0. 0.</_>
    <_>
      0. 0. 0. 0. 6. 10. 3. 6. 8. 2. 8. 9. 2. 0. 3. 1.</_>
    <_>
      0. 0. 0. 0. 5. 9. 11. 8. 7. 8. 8. 9. 0. 0. 2. 1.</_>
    <_>
      0. 0. 0. 0. 6. 9. 5. 7. 8. 2. 8. 9. 2. 0. 3. 1.</_>
    <_>
      0. 2. 4. 0. 5. 8. 8. 8. 5. 3. 10. 8. 0. 0. 0. 1.</_>
    <_>
      0. 0. 0. 0. 3. 8. 11. 6. 7. 4. 8. 8. 0. 0. 3. 1.</_>
    <_>
      0. 0. 0. 0. 5. 8. 8. 8. 7. 8. 7. 9. 0. 0. 2. 1.</_>
    <_>
      0. 0. 0. 0. 4. 9. 7. 6. 6. 4. 4. 8. 0. 3. 4. 0.</_>
    <_>
      0. 0. 0. 0. 8. 6. 1. 8. 8. 9. 10. 5. 0. 0. 0. 0.</_>
    <_>
      0. 0. 0. 0. 9. 6. 1. 11. 9. 9. 11. 5. 0. 0. 0. 0.</_>
    <_>
      0. 0. 0. 0. 7. 10. 11. 6. 7. 4. 8. 9. 0. 0. 3. 1.</_>
    <_>
      0. 0. 0. 0. 0. 7. 10. 0. 8. 10. 12. 5. 0. 0. 2. 0.</_>
    <_>
      0. 0. 0. 0. 3. 9. 11. 6. 7. 7. 8. 9. 0. 0. 3. 1.</_>
    <_>
      0. 0. 2. 1. 7. 10. 7. 9. 5. 7. 9. 8. 0. 0. 0. 1.</_>
    <_>
      0. 4. 0. 0. 8. 6. 7. 8. 4. 10. 11. 5. 0. 2. 0. 0.</_>
    <_>
      0. 0. 0. 0. 4. 3. 0. 7. 4. 8. 8. 10. 0. 0. 0. 2.</_>
    <_>
      0. 0. 0. 0. 5. 10. 5. 6. 5. 6. 10. 7. 0. 3. 3. 0.</_>
    <_>
      0. 0. 0. 0. 5. 10. 5. 6. 6. 5. 10. 7. 0. 3. 2. 0.</_>
    <_>
      0. 0. 0. 0. 5. 10. 7. 7. 6. 6. 10. 7. 0. 3. 3. 0.</_>
    <_>
      0. 0. 0. 0. 8. 1. 7. 6. 8. 7. 2. 0. 0. 0. 0. 0.</_>
    <_>
      0. 3. 4. 0. 6. 5. 4. 8. 4. 8. 8. 7. 0. 0. 1. 1.</_>
    <_>
      0. 0. 0. 0. 8. 4. 5. 10. 5. 8. 3. 8. 0. 0. 0. 0.</_>
    <_>
      0. 3. 4. 1. 6. 5. 4. 8. 4. 8. 8. 6. 0. 4. 0. 0.</_>
    <_>
      0. 0. 0. 0. 5. 3. 3. 9. 7. 5. 8. 9. 0. 3. 0. 2.</_>
    <_>
      0. 0. 0. 0. 10. 9. 9. 6. 9. 9. 7. 7. 0. 0. 3. 0.</_>
    <_>
      0. 0. 0. 0. 5. 8. 7. 8. 7. 8. 8. 9. 0. 0. 2. 1.</_>
    <_>
      0. 0. 0. 0. 5. 10. 8. 6. 6. 6. 10. 7. 0. 3. 3. 0.</_>
    <_>
      0. 0. 0. 0. 6. 7. 5. 9. 2. 4. 8. 9. 0. 0. 0. 0.</_>
    <_>
      0. 0. 0. 0. 8. 0. 4. 7. 8. 7. 2. 2. 0. 0. 0. 0.</_>
    <_>
      0. 0. 0. 0. 7. 9. 9. 6. 9. 9. 7. 7. 0. 0. 3. 0.</_>
    <_>
      0. 0. 0. 0. 0. 8. 2. 0. 0. 12. 6. 0. 0. 0. 0. 0.</_>
    <_>
      0. 0. 0. 0. 5. 10. 5. 5. 7. 6. 10. 8. 0. 3. 3. 0.</_>
    <_>
      0. 0. 0. 0. 7. 1. 5. 10. 5. 8. 3. 7. 0. 0. 0. 0.</_>
    <_>
      0. 0. 0. 0. 3. 9. 11. 6. 6. 4. 8. 8. 0. 0. 3. 0.</_></uncompressed_support_vectors>
  <decision_functions>
    <_>
      <sv_count>1</sv_count>
      <rho>7.1300963294043684e-001</rho>
      <alpha>
        1.</alpha>
      <index>
        0</index></_>
    <_>
      <sv_count>1</sv_count>
      <rho>-7.6758885969224921e-001</rho>
      <alpha>
        1.</alpha>
      <index>
        1</index></_>
    <_>
      <sv_count>1</sv_count>
      <rho>5.2820679591637176e-001</rho>
      <alpha>
        1.</alpha>
      <index>
        2</index></_>
    <_>
      <sv_count>1</sv_count>
      <rho>-1.6515660618552996e+000</rho>
      <alpha>
        1.</alpha>
      <index>
        3</index></_>
    <_>
      <sv_count>1</sv_count>
      <rho>-2.1006853760460853e+000</rho>
      <alpha>
        1.</alpha>
      <index>
        4</index></_>
    <_>
      <sv_count>1</sv_count>
      <rho>-2.5212688378333574e+000</rho>
      <alpha>
        1.</alpha>
      <index>
        5</index></_>
    <_>
      <sv_count>1</sv_count>
      <rho>2.1712429508150279e+000</rho>
      <alpha>
        1.</alpha>
      <index>
        6</index></_>
    <_>
      <sv_count>1</sv_count>
      <rho>-1.2714167855078035e+001</rho>
      <alpha>
        1.</alpha>
      <index>
        7</index></_>
    <_>
      <sv_count>1</sv_count>
      <rho>-2.9485537990390824e+000</rho>
      <alpha>
        1.</alpha>
      <index>
        8</index></_>
    <_>
      <sv_count>1</sv_count>
      <rho>-3.2905855678356377e+000</rho>
      <alpha>
        1.</alpha>
      <index>
        9</index></_>
    <_>
      <sv_count>1</sv_count>
      <rho>-5.0711056786996709e+000</rho>
      <alpha>
        1.</alpha>
      <index>
        10</index></_>
    <_>
      <sv_count>1</sv_count>
      <rho>-1.7772952171457157e+000</rho>
      <alpha>
        1.</alpha>
      <index>
        11</index></_>
    <_>
      <sv_count>1</sv_count>
      <rho>-1.9803406927004115e+001</rho>
      <alpha>
        1.</alpha>
      <index>
        12</index></_>
    <_>
      <sv_count>1</sv_count>
      <rho>-2.2644800466064616e+000</rho>
      <alpha>
        1.</alpha>
      <index>
        13</index></_>
    <_>
      <sv_count>1</sv_count>
      <rho>1.4022946127265778e+000</rho>
      <alpha>
        1.</alpha>
      <index>
        14</index></_>
    <_>
      <sv_count>1</sv_count>
      <rho>-2.2683012259194326e+000</rho>
      <alpha>
        1.</alpha>
      <index>
        15</index></_>
    <_>
      <sv_count>1</sv_count>
      <rho>-1.8555480586395166e+000</rho>
      <alpha>
        1.</alpha>
      <index>
        16</index></_>
    <_>
      <sv_count>1</sv_count>
      <rho>-1.3417253206850634e+000</rho>
      <alpha>
        1.</alpha>
      <index>
        17</index></_>
    <_>
      <sv_count>1</sv_count>
      <rho>-9.4941430444668740e-001</rho>
      <alpha>
        1.</alpha>
      <index>
        18</index></_>
    <_>
      <sv_count>1</sv_count>
      <rho>-1.4235178205251631e+000</rho>
      <alpha>
        1.</alpha>
      <index>
        19</index></_>
    <_>
      <sv_count>1</sv_count>
      <rho>-1.1752411904423690e+000</rho>
      <alpha>
        1.</alpha>
      <index>
        20</index></_>
    <_>
      <sv_count>1</sv_count>
      <rho>1.7981275599765949e+000</rho>
      <alpha>
        1.</alpha>
      <index>
        21</index></_>
    <_>
      <sv_count>1</sv_count>
      <rho>-1.5934307818958788e+000</rho>
      <alpha>
        1.</alpha>
      <index>
        22</index></_>
    <_>
      <sv_count>1</sv_count>
      <rho>-9.5526972269280730e-001</rho>
      <alpha>
        1.</alpha>
      <index>
        23</index></_>
    <_>
      <sv_count>1</sv_count>
      <rho>-4.6951672566093041e+000</rho>
      <alpha>
        1.</alpha>
      <index>
        24</index></_>
    <_>
      <sv_count>1</sv_count>
      <rho>-4.3113030351226946e+000</rho>
      <alpha>
        1.</alpha>
      <index>
        25</index></_>
    <_>
      <sv_count>1</sv_count>
      <rho>-1.5096556724007013e+000</rho>
      <alpha>
        1.</alpha>
      <index>
        26</index></_>
    <_>
      <sv_count>1</sv_count>
      <rho>2.8360696627539430e+000</rho>
      <alpha>
        1.</alpha>
      <index>
        27</index></_>
    <_>
      <sv_count>1</sv_count>
      <rho>-1.8360991564718983e+000</rho>
      <alpha>
        1.</alpha>
      <index>
        28</index></_>
    <_>
      <sv_count>1</sv_count>
      <rho>-1.4884412738033930e+001</rho>
      <alpha>
        1.</alpha>
      <index>
        29</index></_>
    <_>
      <sv_count>1</sv_count>
      <rho>-6.9863937928721542e-001</rho>
      <alpha>
        1.</alpha>
      <index>
        30</index></_>
    <_>
      <sv_count>1</sv_count>
      <rho>-1.9172560024475802e+000</rho>
      <alpha>
        1.</alpha>
      <index>
        31</index></_>
    <_>
      <sv_count>1</sv_count>
      <rho>1.9434904432140521e+000</rho>
      <alpha>
        1.</alpha>
      <index>
        32</index></_>
    <_>
      <sv_count>1</sv_count>
      <rho>-1.6790288466762799e+000</rho>
      <alpha>
        1.</alpha>
      <index>
        33</index></_>
    <_>
      <sv_count>1</sv_count>
      <rho>-1.2879935724049301e+000</rho>
      <alpha>
        1.</alpha>
      <index>
        34</index></_>
    <_>
      <sv_count>1</sv_count>
      <rho>-1.2619220274361864e+000</rho>
      <alpha>
        1.</alpha>
      <index>
        35</index></_>
    <_>
      <sv_count>1</sv_count>
      <rho>1.7847074986854878e+000</rho>
      <alpha>
        1.</alpha>
      <index>
        36</index></_>
    <_>
      <sv_count>1</sv_count>
      <rho>4.6658423970909080e-001</rho>
      <alpha>
        1.</alpha>
      <index>
        37</index></_>
    <_>
      <sv_count>1</sv_count>
      <rho>8.7624718719588757e-001</rho>
      <alpha>
        1.</alpha>
      <index>
        38</index></_>
    <_>
      <sv_count>1</sv_count>
      <rho>1.4229762812705773e+000</rho>
      <alpha>
        1.</alpha>
      <index>
        39</index></_>
    <_>
      <sv_count>1</sv_count>
      <rho>1.7403034849819170e+000</rho>
      <alpha>
        1.</alpha>
      <index>
        40</index></_>
    <_>
      <sv_count>1</sv_count>
      <rho>-7.0879343635975989e-001</rho>
      <alpha>
        1.</alpha>
      <index>
        41</index></_>
    <_>
      <sv_count>1</sv_count>
      <rho>-2.0378966352216983e+000</rho>
      <alpha>
        1.</alpha>
      <index>
        42</index></_>
    <_>
      <sv_count>1</sv_count>
      <rho>-3.0244221584111561e+000</rho>
      <alpha>
        1.</alpha>
      <index>
        43</index></_>
    <_>
      <sv_count>1</sv_count>
      <rho>1.5228639030852960e+000</rho>
      <alpha>
        1.</alpha>
      <index>
        44</index></_></decision_functions></opencv_ml_svm>
</opencv_storage>
